0.23186594,-0.78209144,-3.4605324,0.6174084,-5.0994086,-2.6946826,-1.5581,5.0443277,1.6948149,-3.3833303,4.095859,-2.9368932,3.3957794,1.1966262,-6.2925396,0.6209887,-2.8573098,1.6903949,-1.6950974,-4.788277
-0.38295543,1.3224297,-0.43256986,1.3485502,-3.0512803,-6.7787127,-3.4932678,2.0996876,-0.43091267,-3.3394568,-3.8172593,-5.1449027,-6.61602,-10.129343,2.6753755,1.1388891,-0.9583953,-1.3699886,-7.725926,1.8852022
-0.8991982,0.4369411,-1.6387209,-1.6440362,6.5215664,-4.862644,-0.027142549,6.1157517,0.5370012,5.413542,-3.6104655,-6.1099577,-1.7536312,-2.5361276,5.56192,-1.6380581,2.176371,-1.1639894,4.5023293,-3.2690456
-0.7187808,0.17417784,0.5413571,1.2205652,1.5961026,-0.9527178,-1.4600147,-2.711754,-2.8032389,-0.41604316,-0.016965695,-3.6628442,2.0529761,1.5491422,-2.7269065,-1.0844088,0.5892511,-0.33410683,-2.1958656,-2.4515545
-0.2524637,-0.035531275,3.5318577,-0.36787394,-1.5530157,-4.574018,1.1248207,-2.1862977,-1.1155311,-1.4185213,-1.6141229,3.7503188,-5.410094,4.0213847,-1.6071395,-1.8313142,0.7059848,-1.3933706,-1.968313,-4.3301983
1.7285742,-0.83409303,1.1807052,-1.6186963,-1.3118273,-0.9582019,-0.7066642,-2.914604,-0.4607247,-0.5501002,-2.6536133,-4.0482106,-4.7998075,-7.7012453,-4.5016065,-4.975772,-4.421531,3.6329691,-0.45430225,-2.6885464
-0.4133066,-0.36303782,-0.6117708,-1.6302779,0.115015104,4.6741457,1.3250147,-2.5414093,-0.38386348,-2.1892688,-4.9004345,-4.3418355,3.396588,-0.024549512,6.4339795,0.94406927,-3.9215891,-1.5645797,-5.298648,-3.9490216
-2.5965002,3.324598,-0.21764025,-0.4702333,0.0316232,-1.2163038,-2.7269197,-4.341649,-5.384514,-3.4670365,-4.8243957,2.1765344,-4.9814477,-5.9952593,-4.8538785,-4.3037314,-4.2354226,-2.621123,-5.000309,-12.410621
-1.1000817,0.023938064,-2.0782678,-1.1597914,1.3916756,-1.6603458,2.3316014,6.3727384,3.3035276,0.13028233,1.6034638,-4.9826975,-1.0281152,-3.6004004,-7.2026777,-1.0767354,-4.275402,-0.85228896,-9.138794,3.8856692
0.30585662,-0.1711739,-2.4286704,3.815104,1.5835972,3.5358112,-5.391266,-4.777435,-2.0207777,3.6763804,5.7277265,-5.2002163,-4.2805753,-2.6590164,-4.1715646,-1.9632127,4.0647597,-2.2694802,0.2982376,-3.3696651
1.7123375,0.14373139,1.270297,-0.37350994,-0.45181534,-4.3446746,-6.584245,-0.7938197,-0.1052686,-0.66340655,-4.962547,-4.3474555,-2.7538927,-3.068835,-3.9302309,7.882582,-2.9798896,-0.19944586,-4.3204165,-1.3819889
0.37259296,0.84471416,-2.0770593,4.496852,-2.7937052,-3.184154,-7.162155,-0.8838387,-3.8249755,1.0506876,-2.5263908,-3.1125176,3.5734117,-2.3803601,-0.5905384,1.5610507,-6.801393,-1.7176638,3.5307598,3.5698035
-1.9435343,-2.933168,-4.1249447,-4.220155,-9.287002,-10.885225,-8.579508,-9.486009,-7.363851,-7.026107,-2.096376,-7.466179,-3.1055145,-0.54040945,-0.47440568,-0.06612858,1.9672157,1.1934206,1.0513121,-2.1382797
-1.6893574,-0.4644666,1.2558128,0.12618041,0.46243766,-2.6394594,1.8496505,-2.8762088,-1.3776063,-0.35156083,0.29460073,-3.0015047,1.364319,0.19583717,0.4151248,-0.32763442,-1.7658201,-0.5313328,3.977935,6.9106107
0.43248355,-1.8674806,-1.9855547,0.0003450293,8.288918,-2.3984776,-1.7522701,-7.018196,-2.1365998,-8.30772,-1.3151455,0.9073797,-2.5065806,2.3995762,-2.3499343,0.5653162,-1.7437445,0.084438615,-11.735593,-4.57038
-3.4330435,-1.5355986,0.2504969,-1.423866,0.8946728,0.30390075,1.5425363,-2.052627,-2.129378,-4.997371,-5.0895104,-3.3141894,-5.079802,-8.543854,-3.8629951,-2.262851,-3.300151,-1.8654048,-7.322631,-4.9749484
-0.4980729,-1.5473744,0.7885295,0.6261198,-1.2433505,4.701004,-1.1666834,-0.8359612,-3.708619,-1.0520128,-2.22691,-1.9289987,1.3649276,-4.3573146,4.533742,-1.438776,-3.3616552,-1.4067534,0.7820353,-4.6166077
-2.3067248,0.51017797,-2.711946,-1.1194756,-0.38093767,1.0197371,1.3252876,-2.6738653,-5.0903773,-6.8521776,-4.7758055,-6.8313966,-6.098293,-7.250768,-6.628995,-4.1339574,-4.3476343,-2.079836,-10.289305,-7.9508343
-0.55208844,1.4598778,0.3360526,-0.31249562,-1.7803358,-4.1005116,1.553364,1.609113,-0.47369584,0.03170641,-4.6341233,-2.2284071,-2.8477218,-5.5752892,-6.3463616,-2.9972246,-2.274863,-0.8627902,-5.666088,-6.5392404
-0.39732152,1.2837325,0.80271924,-0.9288474,-2.218663,-3.3334053,1.5040935,-0.525766,-0.34830195,-0.9663493,-2.092254,-1.4494597,4.498488,0.467566,0.59243655,-0.68769306,-0.74331796,-1.6976192,0.09565439,-1.6645545
-1.3723575,0.32741567,-0.14008883,-2.2609437,-3.0503721,-3.1843052,-1.885405,-0.8751467,6.8900423,-1.4275103,-3.331582,-2.589379,7.2176943,7.73088,0.16339545,-3.2195241,2.1119397,-1.1487404,-3.033745,2.217324
-0.0932403,0.58567697,0.7654852,-1.2280718,6.236813,-2.5071874,0.72488433,-5.8698545,-1.911583,-2.2697384,-0.79913974,-0.3036725,-0.23728961,-4.6312184,-1.8669719,-0.7707533,-6.2377963,2.1456048,4.3535995,-1.0325565
-2.2299035,-2.0197058,-0.39611346,0.62976265,-1.0034974,-2.7614841,0.28648642,-2.4340563,2.1189642,3.1100764,0.45682126,-6.6668415,6.677228,-2.496921,1.0277896,-2.2184837,0.19972941,-0.34535328,-1.4227691,-4.4873967
-0.9085298,-1.8373567,-5.495524,1.2078643,-5.1821213,-4.7280254,2.834155,-4.320841,-4.8736095,4.999761,1.2872618,4.2603984,-1.4245287,-3.383531,-0.11698639,-1.8574957,-4.3264594,2.3771725,-2.6242838,-2.890946
-2.368244,0.7218965,0.07495997,1.6112521,0.55425894,-1.8744897,-4.3925285,-3.325809,2.9345133,4.4899387,-3.0106454,-5.8847237,-4.183892,-5.4002485,-2.1221433,-0.14971296,-5.012007,-0.64394295,3.8081558,-5.165746
3.5029886,0.4258858,-1.0701034,-3.3948772,-7.9914327,-3.355798,3.008145,-2.303738,-2.7088363,-3.7648952,-1.2348282,-7.632374,-0.9248148,-7.3774786,-7.0422144,-0.91370857,-4.424387,-2.264997,-2.672553,5.309158
-0.9740731,-0.9212319,-2.038791,-0.8032971,1.5429677,-2.197877,3.4374218,1.2889674,0.48790213,2.4893603,-1.7696093,-1.5630469,-3.0956733,-2.8963718,0.20265405,-1.3879843,-0.5809387,-1.5790331,-3.4888518,-5.904355
1.3945401,-0.2063641,1.9906647,0.8556998,0.8770269,-0.7066,-1.2064761,1.3444966,-1.9789531,-0.88813347,-0.4924065,-1.9361162,-0.7751803,-0.76414686,-0.28387868,-0.38638946,-1.579036,-2.3044593,-3.2811048,-4.4623275
-1.4316716,-0.1335586,-0.6252162,1.4376664,0.38719463,-1.3277576,2.6457865,-3.230024,1.7992845,-3.27741,0.46487907,-5.7221394,-1.0852269,-1.9542624,2.4074461,0.7652007,-2.1419172,-1.2764014,1.9630086,-4.0496473
-0.022668835,-1.590223,-5.718566,-5.4034758,-11.015978,-11.967215,-8.3155985,-10.27561,-3.7665746,0.43319997,3.6657825,2.590726,0.60632914,-3.2403286,0.70814556,-3.0951195,-1.0938501,-1.0267395,-3.9183567,-5.9149117
-0.8201678,1.2590991,0.43291727,0.94502676,-1.3455473,3.8962517,-6.850835,-3.6318676,-3.3262706,-4.464204,-3.4054637,-2.6424565,0.74436194,-9.06702,-3.8810568,-1.0190142,-5.6704817,-3.341272,2.2493386,-2.7106435
-2.18797,-0.75175416,4.75878,-5.3350806,-7.080415,3.0092216,-6.5179873,-0.9375317,3.5430825,-4.5535564,-6.5921216,-6.7200027,-6.6998587,-4.5903015,-3.982597,0.5990874,-0.26424947,1.5992355,-4.3744097,2.0281544
0.17052662,1.2811056,-2.1258638,-3.75161,-0.72620016,-3.1001048,3.4103749,2.5849147,-2.9797866,-2.8925488,-1.1589032,0.42200163,4.70081,-3.465907,1.4502274,-4.153215,5.0787153,-0.56356317,-2.2837942,-1.5554619
-4.226403,-6.0464945,1.4413688,2.454597,0.7299637,-7.172394,3.4543543,-0.97390234,-3.963739,-4.3617377,-4.7032166,-6.3261814,2.9368813,-5.034252,-4.7445655,-6.319197,-6.921051,-4.471906,-4.7174344,-3.9297423
-0.9881402,0.2016021,0.16435423,-0.093077525,-0.7842519,5.354762,-3.8225493,1.0863619,4.1135435,4.4409385,-1.5649389,-1.5819299,-4.464512,3.5392933,-2.417504,-0.47462717,-1.57289,-1.3450898,-11.54888,0.9710116
-1.8038825,0.5661393,-0.22470424,0.61306095,1.0049691,-0.6860829,-2.9270983,-1.5173426,-1.6461505,-1.1661904,6.1817446,-0.66612,-1.9312774,-0.7860165,0.35680506,-0.6828808,-2.4143727,-0.7380279,-1.2897217,-1.4794482
-0.73924977,-0.17385471,0.5957461,0.7919828,-0.94668156,2.5209498,-2.7755709,-0.28816414,-2.844538,0.13860743,-0.70117617,3.5677688,2.061832,3.4100304,5.001424,-0.035381768,-0.57145065,-1.5540882,6.416421,0.14918296
0.14288928,1.4183295,1.3156494,-0.3796874,-3.034887,-4.1801667,-1.4185435,-0.2057389,-1.2871747,0.6319696,-1.1954336,-2.2216544,-0.018514289,-0.30649382,1.5522656,1.1144215,-1.6999519,-0.46065566,-4.149781,-1.0001853
0.5055571,0.8372171,4.62466,-1.4201412,-2.6265812,2.6832006,-2.1881723,1.4094387,-3.0695448,-1.1858877,-3.286631,-0.9113327,-2.6919994,2.1335413,5.6889577,-0.39656156,-0.57062495,0.09790757,-3.5428336,-6.736788
0.48285785,0.41025886,-1.3787619,-1.1858833,0.101526275,-3.7669094,-6.7430887,-1.4809474,-5.3922544,-2.230904,-3.054354,-4.509771,-5.664588,6.121196,-7.121093,-1.624462,0.27094278,2.0813515,2.0721226,3.3514063
-0.7440478,-0.40455765,1.4246027,-0.39120653,1.1134598,-3.7336006,6.6963596,0.66639715,0.6053332,-1.8922381,0.3608676,-4.269585,-4.0046134,-4.326802,-2.6393986,6.743416,-4.217631,-0.7376932,-3.9346764,2.8958325
0.92178637,-2.4036548,-2.7084494,3.4660108,-4.2992415,1.295656,-0.5355494,0.2533113,-4.284263,-4.99195,-5.841468,6.9226065,-4.8971767,-4.7747655,-4.038213,-3.0127575,5.694398,-3.6128035,2.7575114,1.1097102
-2.5839963,-0.93008816,0.7342368,-0.23916401,0.37018996,0.39041734,0.6045164,-0.33144617,-0.102924965,1.1226637,-1.1999463,-1.1755862,-1.3392038,-2.58166,1.7703588,-0.45631582,-1.954957,-2.0552287,5.3536115,3.274028
-0.09186659,1.7445786,0.3819468,0.17664717,-0.38056728,-2.0390995,-1.1698494,-2.330496,-2.3315926,-4.4742365,0.97493356,-4.79277,-4.7231636,0.93648136,-1.1666876,-1.8674654,-1.4885328,1.7808647,-5.416199,-0.3383241
-2.3691077,-1.0808247,-0.9031705,0.30061087,1.0391996,1.0151342,1.2830737,0.9708049,-0.6101666,1.2334487,0.31944287,-1.5809919,2.7295384,-1.5606823,-2.996577,-0.5768024,0.23294005,-0.39495507,-2.9827468,-1.4595839
-0.8592338,-0.31364673,1.9414423,-0.6312324,0.8837386,0.28615165,-2.2518444,-3.6855643,-3.9295135,-4.209785,-1.584275,-3.616089,-4.683738,-5.284411,-1.7659789,-2.3707623,-2.522594,-2.3630404,-1.5699207,3.945278
0.30492276,0.7030442,-0.56841177,-1.3521193,1.5635334,-2.1603026,7.4124527,-0.37735188,0.89633447,1.0591272,-2.07948,0.52071065,-2.3909464,-3.6515682,-3.0385082,-0.5500295,1.487549,-0.5595896,-3.31364,-0.9859504
-0.7150516,1.4967029,-2.5699902,-4.436497,-5.8436117,-2.7573607,0.6865057,-5.9006896,-3.3801088,-1.8591198,2.95721,0.37842256,-1.2695521,2.6820843,4.9445543,2.5718284,1.6130867,0.5822816,3.0870063,3.0433676
0.9292935,-0.98593056,0.53956044,0.8000044,0.85647,-1.0487766,-0.23098193,-2.2968016,-1.203822,0.09191489,4.8274436,-1.640253,0.81471425,-2.7112586,0.6435154,-0.9451029,-2.3934467,0.42710057,-1.5902287,-5.3117833
0.54676497,-2.5256176,-0.455803,0.39165276,0.5942216,1.7993408,0.6160806,-1.7558361,-1.919895,-0.7439397,-3.5538692,2.2434921,-4.7165537,-3.449068,-1.8349513,-1.0793372,-3.6664762,-1.7758112,-3.3868432,-0.0033487347