-0.042430475,-5.901343,-3.516837,1.4192909,-8.820304,-5.558746,-2.5124183,6.3841934,-1.1670274,-3.7973444,3.9757133,-7.099731,2.570569,4.5718493,-5.4691267,2.0722349,-2.042784,2.6669152,-1.4433851,-8.071568
-0.49608493,2.7942522,-3.4130588,1.4071913,-5.460797,-7.286759,-2.9897678,-2.7860928,1.7758125,-8.28226,-10.598552,-4.972692,-8.4037285,-10.718512,6.4892974,-0.00017035287,-4.902773,-1.3392471,-13.351794,0.70512587
-2.1051753,0.43802804,-7.3423085,-3.5545223,7.1571956,-6.767653,1.162575,9.813309,-2.271738,8.490381,-4.683009,-8.004006,-0.30041835,-4.5354486,9.545896,-3.8058162,2.3229904,-2.6881769,4.6405582,-13.1076355
-0.7883137,-1.5575486,-0.19227825,7.217424,-2.5109522,-3.614318,0.76973397,-5.937983,-3.9698653,4.746147,-2.7210212,-6.971617,0.3822649,1.6681722,-5.495613,-5.513225,3.2265272,-0.9475645,-10.113331,-3.0253482
-2.2829938,-5.8871965,2.3047805,-1.5377225,-1.5784402,-3.0632837,-0.26186115,-0.46230093,-8.501999,-0.471378,-3.3118746,9.549796,-6.827757,9.713603,-4.7683406,-2.1687515,2.3891673,-4.968528,0.06674436,-4.6115813
5.622363,-3.0296044,-0.31957516,-5.8716884,-4.409616,-5.532893,-3.1640995,-0.3861586,3.6112905,-2.3071496,-6.9613028,-1.7737585,-6.309921,-9.463062,-8.797776,-6.3026376,-5.544847,7.1711683,1.1573874,-3.7105427
0.8522392,0.20570204,-0.777497,-0.91888744,2.6816788,8.751701,1.3584114,-3.7045312,-1.6813142,-1.2659473,-2.9158928,-4.100085,2.8720229,-3.029086,10.705898,0.97571653,-5.446266,-4.3782926,-5.173911,-10.558667
-6.0204496,6.189666,-0.6711003,0.43306947,0.00052470464,-2.2129326,-4.098567,-6.286766,-7.2599144,-6.9521766,-10.587636,1.6737753,-7.975015,-10.963242,-6.305218,-6.428198,-5.609071,-8.25398,-9.447087,-15.961873
-1.8298233,0.18338306,-2.420417,-3.9699242,1.8819333,-7.4808736,1.5845662,10.64959,1.8433104,1.9949973,4.800534,-5.6989613,-4.263789,-4.901665,-10.978014,-4.0882373,-6.520996,-5.609542,-8.39793,7.821978
-1.0468634,-2.4879093,-2.7571895,5.5943646,0.41384786,4.574553,-4.5154686,-4.5464535,-6.1751366,3.5142772,10.411229,-9.786146,-3.6389534,-3.226422,-4.5845013,-4.093975,5.7514257,-5.55831,-0.0032542376,-6.65089
4.498889,2.779456,-1.3859265,-0.94293994,-0.631433,-6.8664618,-12.047286,1.4191986,-7.716214,-0.8507449,-9.231255,-11.6099,-0.89819354,-5.116445,-3.445635,12.633746,-5.557191,-2.7174568,-8.694595,-3.2020435
0.6546283,-0.0024110875,-2.149404,6.9198503,-3.678406,-5.9175525,-8.841219,-3.8470223,-12.037954,-0.16951549,-4.2787814,-3.7840652,4.7011914,-6.634642,-2.6094673,0.4550761,-8.652389,-7.909239,4.2077136,8.446806
-2.121861,-6.7229733,-9.220029,0.8380966,-13.704963,-10.763947,-7.847019,-12.558054,-10.726869,-3.4222603,-2.1930742,-9.869146,-3.632895,-0.7323916,2.4320223,0.54153365,1.1935401,0.50281864,1.015602,-2.5766764
0.72863793,-0.87039155,3.0847468,-0.62423885,0.31736284,-0.14008887,-0.5813904,-0.6503119,-4.652211,3.845532,0.17609394,-11.140364,-0.9766171,-0.9987828,-1.2496223,1.3529853,-3.3318067,-7.033658,4.4855084,8.634762
0.96518797,-4.1156907,-0.14343382,-2.4155865,10.722228,-8.129902,-5.2043977,-10.680275,-1.9361126,-14.8251095,-1.085651,-0.33346036,0.19818264,2.1191928,-1.9670895,1.2441611,-4.3965054,1.9200464,-20.101725,-10.763399
-8.094159,0.2643224,0.39776668,-0.24993221,1.7512084,0.050923932,-2.73195,-2.9914596,-5.6350503,-5.260866,-6.2611876,-0.27374038,-0.09361995,-3.2723804,-8.329586,-1.7634758,-4.0512886,-6.2015195,-18.267323,-9.528387
-1.3051077,-1.383577,1.5224986,-2.0795605,-4.365095,3.4124856,0.34250087,-0.4876949,-10.830263,-0.92926043,-3.7900681,-4.711944,-4.3629813,-6.9082713,1.2181346,-7.4452157,2.5183692,-3.1426048,4.6696205,3.3799574
-3.047023,1.4729176,-3.3797612,-0.20263241,-1.4079194,1.6655967,-0.12409714,-9.448326,-6.6070523,-8.543647,-5.0628033,-5.309892,-2.0874188,-4.4854326,-7.1797156,-8.808824,-9.878903,1.9279847,-22.358324,-13.560147
-0.74368334,2.5407352,-0.66028,2.338834,-0.9410137,-10.305728,1.7242877,2.150183,-9.087744,-1.3058115,-4.3405714,-7.129133,-5.2731237,-9.915852,-8.903835,-2.7541745,-2.1137357,-3.5315354,-6.1465006,-8.710794
-0.30381557,0.2020979,0.37831652,1.9164401,-1.4753892,-0.99500984,-1.1230329,4.2684464,-2.863629,0.030353142,-8.42611,-3.6311123,4.0844913,-0.70237726,1.9143031,2.2052894,-4.8425517,-1.7414296,-0.58237165,-10.471054
-3.75505,0.064423054,-1.055647,-1.9491936,-5.793369,-4.1306047,-1.6080637,-3.4336717,10.590084,0.8442289,-3.3155053,-6.2260704,6.7483444,11.728211,-0.31720686,-4.681525,3.4608266,-2.892584,-3.8509479,3.6688902
-1.8869983,-0.5899425,0.91906685,1.8177538,6.7587523,-0.6427341,-0.5052747,-12.919941,0.078022555,-2.7420342,-3.900745,1.0340112,0.16231187,-6.0079913,-6.978949,-3.3030086,-8.680032,7.6463504,9.369636,-1.9266049
-2.9738836,-5.057943,1.1610541,-1.0044158,-2.7167845,-7.220681,-0.42725047,-2.0812998,-0.15654728,6.5006857,3.6452298,-10.719484,4.466436,-0.5481008,-2.0631604,-2.9970574,0.4797709,-2.942744,-2.4579418,-6.7146606
-3.282912,-1.1718235,-8.182469,0.17744978,-6.949082,-8.063111,2.7333186,-9.905341,-12.902588,6.7771587,2.5314448,8.412026,-3.9305787,-7.4371414,1.4666489,-7.4773836,-5.7122574,5.695235,-4.8595614,-7.30453
-5.365675,2.0069797,1.0645074,1.8675523,-4.234659,-7.4608865,-5.0489187,0.24695595,9.48746,4.695513,-3.7328982,-11.087166,-4.545366,-8.949253,-0.2524017,2.2485318,-8.713915,-2.6508303,7.029209,-5.3611503
6.872124,2.107611,-5.0702276,-3.7180223,-5.788239,-4.2555923,3.0065715,0.89392155,-5.140806,-4.3467884,-4.560319,-13.243021,-3.7243736,-10.8073015,-11.8512335,-7.221214,-7.4255805,-6.410383,-5.6417904,8.414582
-2.0705125,-1.377138,-6.2431664,-1.2370983,1.9431725,0.1095088,2.2141392,5.5582385,-3.6446376,0.93623155,-6.3675675,-13.736986,-2.0438592,-8.331578,-1.6053983,1.9785314,-4.2163787,0.08525189,-7.363019,-11.037093
1.7686282,-1.8011537,4.194448,-0.16926034,-4.3072824,-2.646746,-2.6164508,5.0917926,-5.550304,-8.430089,-5.646171,0.6812768,1.5044776,-0.11548375,-5.7581363,-0.63339466,-6.220255,-6.5425797,0.41156536,-6.5231333
-1.6882607,0.38096502,-0.18386339,0.5270332,-1.8190405,-5.0441937,6.27202,-0.90107405,6.132163,-11.332313,-0.054181494,-6.5718527,-3.844312,-4.9219303,4.563997,1.1771206,-5.599811,2.4187558,0.9471823,-9.693207
1.8318926,-4.725555,-5.348037,-7.075621,-13.610854,-11.80102,-7.654614,-11.786694,0.8875411,0.69158596,4.7497835,3.8309112,-3.6504266,-6.870786,0.46890846,-3.116291,-2.2381523,-1.1533307,-3.5425007,-3.6041272
-1.3247434,3.0411875,1.8836942,-1.8394262,-4.9502225,6.3629055,-9.453122,-5.500014,-2.5150683,-10.769646,-6.368545,-0.9031396,-0.11711305,-15.23802,-9.84264,-2.528045,-9.532534,-4.261093,1.8097258,-1.6110423
-3.9075706,-0.8594693,6.186782,-3.113309,-8.183801,3.2612424,-9.911801,-3.044186,5.405414,-5.13436,-7.5680227,-12.203995,-13.834926,-7.3878527,-7.5381536,1.454585,-2.474783,5.605506,-10.981215,3.8479083
-0.83336127,1.7216812,-0.94631064,-7.527237,0.17186965,-6.106934,0.48971218,2.9256217,-3.6287751,-3.4956205,-4.327395,-4.208336,7.4032435,-6.920885,1.0346274,-9.443445,10.220706,-1.916937,-4.580471,-1.22008
-10.022965,-6.1518593,3.7312875,4.219514,0.89679706,-7.242389,4.480602,-3.0867214,-7.5618563,-7.088158,-5.4972863,-14.412165,1.4299557,-11.0490675,-15.297306,-14.992232,-16.43245,-5.264842,-6.2202034,-10.093292
-2.0144777,-0.0940969,-1.9613305,-1.891431,0.47910503,9.179668,-2.9808846,-0.6022915,7.656073,7.3484874,-1.1074356,-5.525893,-4.8696723,5.217868,-4.2287655,-2.2332377,-3.5574229,-5.6827645,-13.717171,-1.5113033
-2.4613109,2.55683,-0.04433589,-0.6016935,-0.66081274,-1.3323154,-1.280742,-5.008129,-2.8694208,1.7195231,7.4862237,-5.350958,-3.1181026,6.0173817,3.580993,-2.220229,-7.5615516,-1.3010936,0.34927103,-6.1901445
-0.33836266,-1.0517601,2.6658494,-1.5100436,-4.6751137,3.679671,2.054201,-4.1797624,-3.990538,-1.1743301,0.30455485,3.3091242,3.945821,3.11194,4.397578,-0.5366952,-0.40792248,-1.7261825,7.8554606,-3.4126332
0.20008059,0.6784522,2.880392,-0.18146442,-5.433045,-7.959483,-1.7546254,2.9462092,-1.3470054,-1.7720176,-2.6049929,-6.080925,-4.220109,-0.29252812,2.5119843,3.9665458,-3.2034163,0.73310107,-8.632212,-2.7598739
-0.08506659,-0.6970139,8.05938,-0.16165158,-3.989773,3.3991015,-1.7457858,-2.0069866,-5.427451,-6.3022766,-1.1215116,6.450583,-2.9537976,2.6800876,7.115626,-6.084528,1.9111643,-3.5839486,0.5164548,-8.104489
-2.7689412,-0.9940991,-3.9862864,-1.8907536,-0.6189386,-8.819475,-6.546322,-1.8877856,-16.01549,-7.1750393,-6.999507,0.08446165,-7.7879825,9.124241,-8.630591,-3.6507747,-0.10659756,1.8291992,4.2192655,7.9451246
-0.14643419,-1.61577,1.9654454,-1.104055,2.8646913,-3.5138113,6.55573,-0.3108239,-2.6990595,-4.412846,1.9599295,-8.042685,-3.843752,-6.724154,-7.7121825,10.173216,1.6563003,-1.7917122,-0.83370733,4.563821
3.851653,-5.7219305,-3.7269254,4.782045,-6.433493,4.969525,-2.7564905,1.9679066,-6.1365705,-6.529372,-10.7190895,11.917278,-7.43731,-7.8548245,-7.385208,-8.111519,6.375028,-7.484421,5.456,2.939272
-1.5711833,3.514328,1.195697,-4.2653055,6.1526604,-2.207808,-2.936744,2.9289768,-6.339496,1.8141721,-2.0092654,-3.9898586,-9.727711,-7.3285074,3.3664143,-4.240806,-6.314603,-2.1028721,4.890197,2.4913528
-1.4690697,2.9986706,-2.3491585,-0.87508374,-1.8734165,-5.227561,-0.4229273,-6.1598473,-8.836649,-2.4461737,-1.012285,-4.1922483,-2.9795241,2.9346266,-5.1640477,-9.785732,4.6975164,3.991336,-7.480518,-2.6058867
-2.3817077,-1.6023755,-0.98969305,1.5036067,0.875932,0.1614101,-1.5452547,1.0904442,-1.0199302,1.3417605,1.6972507,-5.2215576,4.8072233,-2.788544,-9.058169,-0.20599982,2.828627,-0.5965054,-6.9268746,-8.018822
-1.4549849,0.15051802,4.3041186,-1.1716831,1.1556723,-1.9718375,-6.1735315,-4.222426,-7.117331,-0.4772841,-0.53194183,-7.3646016,-7.308789,-9.0434,-2.6798959,-8.691034,1.6355671,-0.8398353,1.4727483,4.8473644
1.2572837,-0.26928422,-3.9084144,-2.5420327,1.0619683,-0.06198986,8.186201,-2.8062427,0.106240995,-3.7179835,-5.4987783,0.1438739,0.8540739,-7.61858,-8.686761,5.0915866,7.819886,0.4085069,1.9332808,-7.673015
-2.377308,3.635452,-5.0135026,-7.956518,-8.56652,-0.95856476,1.3194836,-13.143121,-9.439131,-2.3315656,5.405253,-0.023274459,-3.9849515,2.0941174,8.137726,7.543426,4.966347,0.9675625,6.91157,4.900911
1.0979218,-0.8752891,-1.284495,1.007701,0.8881869,-8.288464,-5.2353873,-0.5335193,3.3961978,-2.4229772,4.8055654,2.4741147,0.327009,-8.328133,-0.019730633,-3.5481188,-1.5682013,-0.58593047,-0.40425712,-10.554061
2.8834996,-2.9328482,-0.30849442,1.0068449,-0.18597353,0.8066913,-4.3224154,-3.3625007,-2.558928,-0.7261341,-5.8776574,4.2014284,-3.3220625,-8.082777,-6.3362517,-0.17908198,-7.8046875,-2.625024,-6.8801,2.889631