-0.031252157,-6.0844517,-3.3357072,1.5039717,-8.876127,-5.5622487,-2.5318503,6.556864,-1.3490313,-3.7985628,3.9744072,-7.105687,2.5243495,4.5514026,-5.4714584,2.069674,-2.0432792,2.66819,-1.4483312,-8.07194
-0.5161295,2.7174485,-3.2707212,1.3560041,-5.4595294,-7.2946353,-3.0210967,-2.5125825,1.5309446,-8.282507,-10.598631,-4.9731455,-8.416021,-10.7915325,6.4855466,-0.0064087897,-4.9021387,-1.293119,-13.351974,0.7093798
-2.1103084,0.42743272,-7.499687,-3.5728183,7.165179,-6.7837934,1.1614449,9.805677,-2.271098,8.501119,-4.6833897,-8.02056,-0.30210537,-4.5354886,9.542588,-3.8064322,2.400442,-2.6559796,4.6417093,-13.107626
-0.7889746,-1.5649226,-0.17021815,7.2337456,-2.5091894,-3.6331246,0.7336617,-5.9410887,-3.9739156,4.746148,-2.7276754,-6.972433,0.38537475,1.6683743,-5.4960976,-5.516696,2.889791,-0.9477549,-10.113308,-3.0257943
-2.2744133,-5.892159,2.1652007,-1.5453168,-1.603353,-3.0826988,-0.23543857,-0.47143438,-8.502,-0.4711702,-3.3127053,9.720257,-6.834169,9.713536,-4.7678223,-2.1699274,2.3992636,-4.9753966,0.062290143,-4.611724
5.6325083,-3.042839,-1.2765976,-5.8966293,-4.409381,-5.5378127,-3.1690133,-0.41385907,3.6118476,-2.3068511,-6.961738,-1.8880322,-6.312924,-9.463473,-8.813868,-6.305006,-4.3283963,7.1890464,1.1574745,-3.7121964
0.8512026,-0.107245736,-0.79245913,-0.53472066,2.6246972,8.743728,1.5948219,-3.7068806,-1.6814275,-1.2659901,-2.9159634,-4.084321,2.7351189,-3.0301561,10.707398,0.9818114,-5.450226,-4.395508,-5.1739655,-10.558664
-6.0137696,6.372987,-0.34931314,-0.21612564,-0.010161967,-2.2658556,-4.112269,-6.290727,-7.26054,-6.950639,-10.588051,1.6735532,-7.992258,-10.963893,-6.304839,-6.4301357,-5.612855,-8.264114,-9.447111,-15.952782
-1.8293226,0.18561655,-2.4430242,-3.9504383,1.8365722,-7.474626,1.6191214,10.647075,1.8437794,1.9956119,4.803393,-5.699973,-4.2734127,-4.9011765,-10.978073,-4.088042,-6.525512,-5.6096215,-8.398301,7.8237495
-1.0362034,-1.7865428,-2.862588,5.045856,0.40709808,4.576958,-4.4976873,-4.564849,-6.1753793,3.525046,10.4039,-9.7971115,-3.6793697,-3.2247233,-4.5851326,-4.0980196,5.850759,-5.5660114,-0.0051600146,-6.6510363
4.5018883,2.7570453,-1.3641294,-0.9040471,-0.6247134,-6.882008,-12.138364,1.4016044,-7.716189,-0.82093114,-9.231473,-11.61407,-0.9415719,-5.11704,-3.4450788,12.6428385,-5.5596576,-2.718656,-8.695167,-3.2026532
0.6554123,-0.46456295,-2.2130508,6.5089498,-3.7110023,-5.9214973,-8.865187,-3.8501673,-12.038007,-0.16974708,-4.2790833,-3.7844617,5.5359282,-6.6370153,-2.6114175,0.4531508,-8.652646,-7.9096527,4.212136,8.445874
-2.1219013,-5.315079,-9.217166,-0.65137273,-13.711268,-10.846372,-7.7897825,-12.558046,-10.726916,-3.4229252,-2.1923156,-9.869167,-3.6400883,-0.73241013,2.4320045,0.541389,1.1935271,0.5034717,1.0155692,-2.5766764
0.7285238,-1.0567275,3.272478,-0.6260988,0.3177398,-0.1426116,-0.582495,-0.6521734,-4.652025,3.8465323,0.17617467,-11.140628,-0.97883165,-0.99859375,-1.264452,1.3564188,-3.3327277,-7.0336766,4.4932437,8.635746
0.9716262,-4.109021,-0.16191159,-3.5072842,10.7363205,-8.136908,-5.2316575,-10.683221,-1.9368712,-14.825211,-1.0862992,-0.33435515,1.3201337,2.1122565,-1.9659638,1.2382611,-4.3975863,1.9198126,-20.101736,-10.762734
-8.094194,-0.07037526,0.37781307,0.09025825,1.7520423,0.0011276559,-2.7286267,-2.9941468,-5.6349554,-5.259173,-6.267211,-0.12188579,-0.18198694,-3.2733803,-8.324597,-1.7619334,-4.0044355,-6.2211123,-18.265532,-9.529691
-1.3053045,-1.4916233,2.2707348,-2.1611838,-4.3581576,2.7452364,0.34154767,-0.55561066,-10.843655,-0.9363664,-3.7900743,-4.7129445,-4.344263,-6.8860145,1.2177616,-7.444341,2.515835,-3.675043,4.670208,3.3769546
-3.0697262,0.9450876,-2.1463263,0.039843377,-1.4531962,0.73753506,0.63702893,-9.451966,-6.613384,-8.538453,-5.0642715,-5.313102,-2.720604,-4.489533,-7.17833,-8.791989,-9.87896,0.7002709,-22.35876,-13.559862
-0.73726046,2.29722,-0.6606795,2.2711267,-0.9545256,-10.47302,2.1356368,2.1461039,-9.087473,-1.3161412,-4.3407226,-7.159418,-5.321868,-9.92184,-8.905944,-2.754795,-2.113221,-3.5334322,-6.1488996,-8.710293
-0.3001259,0.20202047,0.35902232,1.912741,-1.4763128,-0.9955544,-1.106782,4.25091,-2.862859,0.024729222,-8.426307,-3.855661,4.1067486,-0.7143009,1.9154726,2.2054002,-4.842634,-1.7414496,-0.5972576,-10.471198
-3.7550938,0.09565613,-1.0761147,-1.9848323,-5.7935348,-4.1328197,-1.6128756,-3.437612,10.591279,0.84153575,-3.315956,-6.2261977,6.7621465,11.729077,-0.31699803,-4.6799,3.459771,-2.8930247,-3.851262,3.6678813
-1.8834121,-0.5918052,0.89436203,1.8240665,6.766677,-0.5906905,-0.508256,-12.920542,0.07820151,-2.7421076,-3.9007595,1.031986,0.1568667,-6.0081434,-6.9790316,-3.3033621,-8.680097,7.646409,9.367828,-1.9266555
-2.9677148,-5.257881,0.67839265,-1.0444497,-2.7158256,-6.9905114,-0.3942964,-2.093449,-0.15690218,6.500741,3.6407778,-9.698804,4.473342,-0.5662318,-2.0667403,-2.9954238,0.6389496,-3.012044,-2.4409978,-6.726926
-3.2871466,-1.193211,-8.154298,-0.7659646,-6.955663,-8.093226,2.7018526,-9.908165,-12.90262,6.7850366,2.5308697,8.410453,-2.767575,-7.4374676,1.46146,-7.475672,-5.7225933,5.7066884,-4.8596535,-7.303701
-5.363381,2.027026,1.0576106,1.8530499,-4.23274,-7.471924,-5.050935,0.24673744,9.487763,4.7080884,-3.7298577,-11.0939245,-4.615976,-8.94926,-0.25376734,2.249393,-8.714426,-2.6510227,7.030308,-5.361694
6.8726277,2.450641,-4.943281,-3.762898,-5.7962894,-4.332432,2.7508447,0.88126117,-5.1409044,-4.3471737,-4.5791655,-13.248855,-3.7874467,-10.8073435,-11.851196,-7.213886,-7.5322742,-6.411889,-5.6419787,8.416174
-2.0724635,-1.4192675,-6.2434244,-1.2418773,1.6934114,-0.42052862,2.7054791,5.300126,-3.644861,0.9172122,-6.3674126,-13.7372465,-2.3765109,-8.332115,-1.6088825,1.5197397,-4.2115755,0.07219213,-7.3628645,-11.037086
1.7777206,-1.807729,4.0955443,-0.18539773,-4.307243,-2.6539428,-2.6162212,5.085087,-5.550311,-8.4304695,-5.692377,0.8189106,1.5200076,-0.11577507,-5.7581363,-0.6431952,-6.236809,-6.543257,0.41154218,-6.5249577
-1.6883843,0.37975436,-0.2809055,0.72037536,-1.8195418,-5.0526543,6.260818,-0.9032352,6.1327577,-11.3320265,-0.051870245,-6.572211,-4.1367583,-4.9219832,4.56826,1.1766782,-5.6003094,2.416858,0.9472677,-9.6932125
1.8414159,-4.733643,-5.347319,-7.0819397,-13.613964,-11.801185,-7.660501,-11.803026,0.88818496,0.69165665,4.7510653,3.8212862,-3.650611,-6.8707995,0.4707654,-3.1164749,-2.2249646,-1.1544762,-3.545969,-3.6050804
-1.3236089,4.022479,1.8322223,-3.0688002,-4.949204,6.395384,-9.456174,-5.500298,-2.515176,-10.768808,-6.362737,-0.9051536,-0.119335726,-15.23886,-9.843155,-2.5336444,-9.533495,-4.2613535,1.8097498,-1.6111739
-3.9146285,-1.339805,7.5448837,-3.1462722,-8.186052,2.44924,-9.9286785,-3.0463486,5.4057517,-5.11179,-7.617321,-14.179058,-13.856163,-7.3835874,-7.5487504,1.4559885,-2.5146627,5.1712403,-10.987574,3.847647
-0.8198606,1.723621,-0.9350956,-7.549397,0.17447363,-6.1139917,0.49383527,2.916089,-3.6294918,-3.4962413,-4.327201,-4.2087245,7.4022136,-6.922308,1.0347058,-9.443949,10.2229395,-1.9174055,-4.5810914,-1.2205244
-10.028095,-6.2512784,3.7233794,3.1640766,0.85642684,-7.3107996,5.449869,-3.108275,-7.563008,-7.072188,-5.497612,-14.41933,1.9090214,-11.068842,-15.298763,-14.995916,-16.442093,-5.2728505,-6.2313128,-10.093779
-2.0258913,-0.17946929,-1.8925154,-1.9218528,0.45335034,9.231464,-3.00063,-0.38084516,7.527294,7.360339,-1.1090055,-5.5260367,-4.870583,5.2142463,-4.2302356,-2.2154982,-3.559703,-5.683366,-13.717171,-1.5108507
-2.4613156,2.5703325,-0.056354515,-0.6038415,-0.65851074,-1.3330382,-1.2834395,-5.0087295,-2.8697867,1.7210212,7.4867616,-5.3517647,-3.1223838,6.0171833,3.5816774,-2.2113607,-7.5625167,-1.304226,0.3492657,-6.190146
-0.33844265,-1.0532416,2.663068,-1.5149148,-4.6753807,3.6910298,2.0500605,-4.1801534,-3.990546,-1.1742581,0.30003494,3.3094006,3.9657218,3.0866096,4.3966765,-0.5366426,-0.40969807,-1.7261826,7.8604703,-3.434386
0.2027163,0.6784464,2.879236,-0.18374437,-5.4330425,-7.9617934,-1.7545327,2.9459956,-1.3465172,-1.7717074,-2.6053486,-6.260503,-4.220243,-0.2925293,2.5119858,3.9665415,-3.2044113,0.7330631,-8.647611,-2.7598739
-0.07701293,-0.6988837,7.944795,-0.22614625,-3.99053,3.4830842,-1.7457932,-2.0137322,-5.4273677,-6.3023868,-1.3453829,6.594325,-2.9538817,2.6832335,7.1166244,-6.086236,1.8907808,-3.5862792,0.51587236,-8.104604
-2.759919,-0.9779296,-4.168063,-1.9048247,-0.617461,-8.745487,-6.5532465,-1.9011822,-16.015772,-7.175321,-6.9995704,0.23704351,-7.792879,9.125194,-8.630714,-3.6522808,-0.0879363,1.8288324,4.2208743,7.943626
-0.14803667,-1.5389833,1.9431263,-2.3052185,2.8632543,-3.5211277,7.5210443,-0.3260631,-2.6989915,-4.385263,1.9616975,-8.042925,-3.8456154,-6.7249284,-7.710822,10.179747,1.6550648,-1.7939022,-0.8338291,4.5643415
3.853262,-5.7322154,-3.8816233,4.0446706,-6.4311385,4.9784727,-1.7345595,1.9536846,-6.1370564,-6.5301986,-10.719236,12.080718,-7.4468074,-7.8553967,-7.3934,-8.111441,6.382713,-7.442269,5.452633,2.939137
-1.5713274,3.518936,1.18818,-4.2706227,6.159512,-2.2069643,-2.9436197,2.9201283,-6.339495,1.8160177,-2.009413,-3.9912257,-9.733367,-7.3286157,3.3680186,-4.237162,-6.3146367,-2.1028812,4.890373,2.4912267
-1.4646686,2.9202623,-2.2112134,-0.8761552,-1.8745387,-5.227572,-0.43084806,-6.1600647,-8.837077,-2.44628,-1.0122364,-4.1952047,-2.9849286,2.934476,-5.163053,-9.78556,4.6946125,3.9899857,-7.4816647,-2.606198
-2.3817077,-1.6015427,-0.99024624,1.5032533,0.87586915,0.16111426,-1.5488896,1.0543878,-1.0198638,1.3423232,1.7727135,-5.221561,4.8079066,-2.7958424,-9.058169,-0.2059719,2.8258865,-0.59656394,-6.9267635,-8.018644
-1.4546591,0.14317541,4.385431,-1.1997361,1.1573195,-1.9754418,-6.184599,-4.2224493,-7.1173463,-0.4767001,-0.61909336,-7.3697805,-7.312751,-9.0435505,-2.6798246,-8.691034,1.4392252,-0.84161615,1.4733454,4.8484573
1.2346758,-0.26880556,-3.8870208,-2.5824134,1.0512569,-0.08576178,6.4769244,-0.19755808,0.10899909,-3.717726,-5.4971514,0.1408882,0.85689896,-7.621405,-8.686856,5.100361,7.8169923,0.4043616,1.9334742,-7.6730566
-2.3816292,3.544352,-5.840066,-7.9612966,-8.566793,-0.96178705,1.3126252,-13.145398,-9.439795,-2.3329248,5.394817,-0.024732022,-3.9861484,2.09721,8.134182,7.5458956,6.0687017,0.98026615,6.915766,4.898687
1.1063614,-0.8794608,-1.4120742,-0.16373327,0.905536,-8.290166,-4.020034,-0.5833619,3.3958895,-2.4227715,4.7882814,2.571095,0.32507008,-8.329776,-0.01971811,-3.5481586,-1.5501416,-0.5860294,-0.40816054,-10.554061
2.8780098,-2.9336612,-0.30802402,1.0069336,-0.18603705,0.8061599,-4.3231745,-3.3703182,-2.559602,-0.7275502,-5.877671,4.199282,-3.3249767,-8.082781,-6.3362517,-0.15788738,-7.8099737,-2.6271641,-6.8802943,2.8896024