0.27905384,-0.4979423,-2.8883348,0.65427583,-4.336741,-2.1628196,-0.65004706,4.931475,1.6127356,-2.989839,3.576013,-2.866175,2.9141777,0.9235253,-6.1049633,0.63421863,-2.6351101,1.592308,-1.8596203,-4.182439
-0.34142184,1.1222224,-0.342268,1.4565209,-2.4511993,-4.8986015,-3.240189,2.094219,-0.6075131,-2.855965,-3.3455627,-5.0309653,-6.197879,-10.046497,2.430868,0.9943968,-0.7402807,-1.270949,-7.6363797,1.7294254
-0.8813231,0.4223843,-1.3916166,-1.4178718,5.7234807,-4.9342127,0.23983932,5.7026114,1.0144627,5.1659927,-3.4801774,-6.093355,-1.4986823,-2.400974,5.3909664,-1.6179476,2.0625415,-1.1523126,4.394855,-3.169602
-0.71790755,0.17230275,0.5464103,1.2127671,1.5977461,-1.0065025,-1.4653134,-2.686668,-2.799112,-0.44143936,-0.012499819,-3.6579807,2.1988218,1.5599693,-2.7227883,-1.0825721,0.57341635,-0.33227712,-2.1834729,-2.435198
-0.24683827,-0.22880632,2.7136974,-0.1297196,-0.78707224,-4.2511725,1.4683579,-2.2100682,-1.0876048,-0.99313545,-1.5724237,3.368927,-4.98308,3.922574,-1.6186701,-1.8190379,0.7499334,-1.3886051,-1.9699197,-4.2934966
1.5992589,-0.71431535,1.1243008,-1.5393872,-1.3228892,-0.5563521,-0.41065097,-2.8813667,-0.4898347,-0.63440627,-2.4965315,-3.963163,-4.866693,-7.671401,-4.4931126,-4.787228,-4.3821006,3.5070808,-0.5201577,-2.6321936
-0.44736487,-0.083079755,-0.15256673,-2.889436,0.7772897,4.7359104,-0.033715684,-2.224905,-0.47766566,-1.8705842,-4.78712,-4.3788457,4.283217,0.19828449,6.446959,0.8049792,-3.8060074,-1.5286853,-5.272775,-3.8715487
-2.5132954,2.7504933,-0.06445329,-0.27296275,0.07146596,-0.62772447,-2.4171298,-4.1267877,-5.1773825,-3.1041265,-3.9339764,1.8843609,-4.1393414,-5.671925,-4.467088,-3.7608972,-3.4454815,-2.282817,-4.652678,-11.967422
-1.0640534,-0.08615658,-1.8313862,-0.96269774,1.2820591,-1.3064748,-0.05763906,8.6459055,3.4870782,0.05935772,1.4790927,-4.9833894,-0.89692986,-3.3433824,-7.1679516,-0.9427221,-4.231573,-0.8221439,-9.107165,3.6661897
0.24627306,-0.41906637,-1.706438,4.0691843,1.364142,4.2453375,-4.9051676,-4.4693656,-1.958128,3.6026435,5.7524657,-5.0927777,-3.781199,-2.5545285,-3.9211671,-1.8967328,3.6908774,-2.0874982,0.35766083,-3.2709205
1.6300477,0.2574451,1.0816008,-0.27540493,-1.0715698,-4.121042,-7.253636,-0.27171016,0.07930311,-0.58942026,-4.692522,-4.2651052,-1.5535729,-3.030226,-3.7574725,7.475814,-2.9547079,-0.10547339,-4.2806063,-1.331436
0.42155686,0.16136739,-1.1611685,3.8109276,-2.4283705,-2.4011836,-6.6151147,-0.46868357,-3.587843,1.0250163,-2.3950002,-3.0417876,4.0007954,-2.1917522,-0.5562894,1.3818481,-6.715151,-1.6279563,3.4487195,3.3708282
-1.9434053,-2.9313176,-4.1246223,-4.2223916,-9.284783,-10.877837,-8.574117,-9.488103,-7.3598685,-7.0251055,-2.0964217,-7.4657245,-3.1044247,-0.54180914,-0.4759296,-0.066154435,1.9673269,1.1934553,1.0513141,-2.1382458
-1.6886207,-0.466082,1.2568444,0.1297692,0.4625287,-2.6663213,1.8400303,-2.8868299,-1.3693113,-0.3536457,0.28718543,-2.9988112,1.3724499,0.202262,0.39158115,-0.32156023,-1.7572844,-0.53002524,3.8467908,6.8262706
0.37365872,-1.5674534,-1.153455,0.91716,7.086062,-2.1276104,-4.3542795,-6.75349,-2.173276,-8.045752,-1.0060271,0.67518914,0.17268202,2.2535706,-2.3114307,0.30010545,-1.635942,0.048241753,-11.685143,-4.455897
-3.4308252,-1.538165,0.22159441,-1.4222378,0.8924995,0.33261672,1.5451777,-2.0518827,-2.1269403,-4.997658,-5.0981936,-3.3092933,-5.072802,-8.516757,-3.8206494,-2.2581995,-3.303168,-1.8580358,-7.282939,-4.945087
-0.5030048,-1.5278742,0.86572707,0.6575466,-1.2389444,4.7068458,-0.9850946,-0.73944134,-3.5482757,-1.0285255,-2.3850975,-1.9000325,1.2533844,-4.246203,4.814711,-1.3876481,-3.3632488,-1.3590769,0.73529124,-4.604995
-2.2796109,0.42375892,-2.672034,-1.0265906,-0.45532015,0.98653543,1.3514588,-2.620942,-5.0990896,-6.720193,-4.73315,-6.7729106,-6.0301633,-7.134374,-6.5340395,-4.105215,-4.2476788,-2.0331464,-10.18661,-7.8470235
-0.5135226,1.0775383,0.38440472,-0.2741358,-1.6037832,-4.123766,1.6782,2.229158,-0.09581151,0.5110298,-3.4246764,-0.7916134,-1.7911897,-5.4041243,-4.6825676,-2.499538,-1.3987762,-0.75261754,-4.662466,-6.3593984
-0.3972243,1.2833098,0.80236423,-0.9290156,-2.185165,-3.3546565,1.5550513,-0.56805736,-0.33288535,-0.9665845,-2.0885315,-1.4484769,4.414771,0.50641495,0.5785576,-0.6854538,-0.74282336,-1.6970246,0.09636292,-1.6505011
-1.3411186,0.26946115,-0.10065725,-2.0045848,-2.7374616,-3.226692,-1.5017358,-0.74756163,6.5701537,-1.3122281,-3.2099404,-2.6201417,6.6827245,7.553363,0.12324349,-3.1859117,1.7940562,-1.0983008,-2.8806741,2.2691157
-0.10140278,0.59490037,0.81252503,-1.169061,5.711181,-2.574661,1.1432288,-5.7455745,-1.9457933,-2.2274559,-0.8992378,-0.40101814,-0.26219067,-4.574024,-1.8791865,-0.7571573,-6.1343775,2.006294,4.0699315,-0.9801223
-2.2276807,-2.0210924,-0.39492738,0.66029423,-0.9942288,-2.618065,0.38487145,-2.3213742,2.004525,2.9604979,0.50898284,-6.473632,5.9841456,-2.467991,1.2550223,-2.2104685,0.48320553,-0.336066,-1.3651866,-4.440832
-0.9209009,-1.7030295,-5.3551292,1.1929326,-4.9672127,-4.390219,2.3853157,-4.1152277,-4.827602,4.8649187,1.2923119,4.0053945,-1.1105433,-3.3603482,-0.13073705,-1.8302561,-4.2479787,2.254218,-2.6299906,-2.8152452
-2.3586743,0.702697,0.09229064,1.5261657,0.68592125,-1.9216923,-4.398815,-2.8454342,2.5749369,4.502106,-2.8578005,-5.886473,-4.0737634,-5.250786,-2.1445003,-0.16845705,-4.97855,-0.60515726,3.7212932,-5.003121
3.4127061,0.6559171,-1.0836852,-3.0089698,-7.535071,-3.4978597,-0.08051954,0.1332249,-2.6208162,-3.6133137,-1.1946908,-7.581811,-0.5124661,-7.310469,-6.992996,-0.87290573,-4.3382773,-2.0689535,-2.6792328,5.1594906
-0.9723943,-0.9180855,-2.0153708,-0.83287305,1.4603072,-2.2322743,0.9610963,3.7576647,0.54989946,2.507355,-1.7655023,-1.5466955,-3.0576496,-2.8877034,0.20405182,-1.383777,-0.6048319,-1.5758737,-3.480119,-2.9606745
1.3684955,-0.19442658,1.9809333,0.8732146,0.8670605,-0.61507374,-1.2032163,1.3446945,-1.9552801,-0.8900612,-0.45949972,-1.8842235,-0.73371136,-0.7451516,-0.28224272,-0.3445809,-1.5640533,-2.2626264,-3.2802331,-4.1785717
-1.4260393,-0.1362311,-0.6060832,1.4178109,0.39890382,-1.4742796,2.506474,-3.0569506,1.6397322,-3.1945362,0.41427872,-5.678397,-0.90893215,-1.8779743,2.2025223,0.8108861,-2.120535,-1.2622925,1.9146621,-3.861796
-0.14246018,-1.470155,-5.5367336,-5.30588,-11.001741,-12.022495,-8.234614,-10.240188,-3.7959259,0.41472438,3.6324186,2.5766318,0.6039608,-3.2205784,0.64389277,-3.1268208,-1.062201,-0.95636785,-3.931722,-5.8656335
-0.8140307,1.2075882,0.45874137,0.98467064,-1.3202062,3.2029305,-6.4918466,-3.4930317,-3.2464561,-4.467854,-3.2929628,-2.6371932,0.45361817,-8.997644,-3.8346503,-0.9880941,-5.588676,-3.2568839,2.0488505,-2.6488318
-1.9355092,-1.177725,4.822169,-4.579243,-6.860164,2.9606638,-5.784393,-0.67279994,3.4715981,-4.4833484,-6.4463944,-6.639193,-6.578459,-4.4787507,-3.6461918,0.75214994,-0.23089816,1.7190659,-4.3227153,2.026824
0.14030698,1.2542108,-1.9033537,-3.392681,0.54317224,-3.1651845,2.1284873,2.121309,-2.23334,-2.8291163,-1.2505977,0.35598218,5.7271304,-3.050851,1.4817007,-4.1020784,4.8709564,-0.44792333,-2.152858,-1.5307999
-4.006114,-4.723339,2.698958,1.907323,1.0978005,-6.138792,3.0356262,-0.8537638,-3.3546495,-3.880776,-4.458869,-5.3305974,3.218112,-4.864094,-3.8503187,-6.0418334,-6.5462804,-4.168774,-4.418603,-3.618762
-0.9769961,0.22264607,0.18948634,-0.0048927455,-0.7875142,4.4486966,-3.6773694,1.002739,3.9644232,4.0793943,-1.4319032,-1.6258137,-4.3850627,3.4870024,-2.3716846,-0.38616526,-1.482715,-1.3261219,-11.526376,1.1390349
-1.8023263,0.5560148,-0.220356,0.6211457,1.0057226,-0.71998394,-2.943197,-1.4715664,-1.6512077,-1.1591673,5.9966984,-0.6644707,-1.8586503,-0.7800506,0.36321512,-0.6793113,-2.4160807,-0.73267776,-1.2885022,-1.5571097
-0.73927945,-0.17229027,0.5983449,0.79680187,-0.9443361,2.3704834,-2.7052438,-0.21409832,-2.8458445,0.1339542,-0.71633846,3.5485713,1.7892712,3.3938272,4.857807,-0.03706755,-0.54609865,-1.5514259,6.3359256,0.124301024
0.14271702,1.4182954,1.31656,-0.37463546,-3.0254693,-4.2334676,-1.4050773,-0.12923966,-1.3178846,0.63085663,-1.1991329,-2.2197244,-0.34818104,-0.2986005,1.5458858,1.1115395,-1.6995558,-0.46014807,-4.149153,-1.004821
0.4964169,0.88226223,4.142906,-1.2203187,-2.485128,2.3787608,-1.8853406,1.0593452,-2.925666,-1.1490654,-3.2180893,-0.93092054,-2.614567,1.838302,5.210631,-0.36802056,-0.54187405,0.15617523,-3.5492215,-6.515014
0.4690617,0.3774292,-1.2333294,-0.98303324,0.06993113,-3.5719376,-6.3370585,-1.3717973,-5.10095,-2.2201476,-3.0258107,-4.4661007,-5.643765,5.9038835,-7.082027,-1.5750895,0.13132522,2.049086,1.978095,3.1836808
-0.7270977,-0.3803997,1.4486744,-0.36541796,0.9968425,-3.5539012,5.972066,0.4892327,0.956843,-1.8717716,0.24787891,-4.274413,-3.8217344,-4.228889,-2.6752765,6.2665944,-4.2416515,-0.7129162,-3.9877348,2.8921227
0.8218966,-2.265418,-2.3533106,2.7957537,-4.015374,0.89286125,-0.23575097,-0.018582013,-4.0468082,-4.885352,-5.765287,7.0214305,-4.411727,-4.6692195,-4.04805,-2.9138272,5.5606365,-3.4890988,2.7250767,0.9312595
-2.5838294,-0.9317893,0.7350403,-0.2405521,0.3672315,0.39060444,0.6562387,-0.41031632,-0.07501446,1.1211169,-1.1995728,-1.1721857,-1.3439231,-2.5777707,1.7612466,-0.45577776,-1.9556203,-2.054838,5.3157463,3.2664595
-0.056607425,1.6608195,0.42555082,0.38077497,-0.29174405,-2.0808442,-1.127326,-2.2041385,-2.2786634,-4.4155464,0.92998064,-4.771291,-4.615979,0.93918115,-1.1143279,-1.8246262,-1.4741657,1.651585,-5.2775354,-0.27565002
-2.369029,-1.0850357,-0.90100414,0.30006418,1.0393459,1.0201879,1.3350742,0.990231,-0.61591756,1.2327737,0.32121336,-1.5770931,2.7587836,-1.5581572,-2.9963303,-0.5761495,0.22415867,-0.39449432,-2.979457,-1.4577727
-0.8549949,-0.29963833,1.9100939,-0.6250959,0.88426435,0.29959393,-2.1922793,-3.3861468,-3.8275356,-4.2357063,-1.8981383,-3.5916681,-4.495804,-5.172952,-1.7919351,-2.3502986,-2.4944487,-2.2532682,-1.6410528,3.7644286
0.30180705,0.72736,-0.47448054,-1.4569994,1.5023371,-2.2272935,6.61753,-0.16711466,0.76857656,1.0465324,-2.0647573,0.46408886,-2.2278125,-3.4632225,-3.0031145,-0.53926355,1.19481,-0.5455749,-3.1543655,-0.79047114
-0.6162861,1.3622596,-2.6163847,-4.061385,-5.677571,-2.3372355,-0.07969893,-5.6897864,-3.2223566,-1.6838232,2.86984,0.34899816,-0.8010471,2.548695,4.9032016,2.5895905,1.6647553,0.7716944,3.0185618,3.0199175
0.899884,-0.97274905,0.5505854,0.8248921,0.8576601,-1.0490702,-0.23215137,-2.3153286,-1.1793338,0.10862237,4.714528,-1.6089178,0.8142177,-2.7012568,0.6262205,-0.90949494,-2.3881707,0.44433245,-1.5785474,-5.2117996
0.5296631,-2.5210426,-0.45678282,0.38962173,0.5942827,1.8072153,0.69091773,-1.7323052,-1.9186306,-0.7494895,-3.5201664,2.119186,-4.6830397,-3.4389818,-1.8467797,-1.0785754,-3.6607268,-1.7547524,-3.3781202,-0.08341649