-0.051096834,-6.6483984,-2.6888309,1.4081247,-8.779755,-5.552683,-2.5163121,7.2922215,-2.210863,-3.795765,4.010001,-7.0986233,2.4994535,4.6101794,-5.469026,2.0729463,-2.0394065,2.6674829,-1.4418188,-8.071006
-0.48664194,2.2361197,-2.5102437,1.3984642,-5.43907,-7.288495,-2.979993,-1.5595006,0.49514607,-8.282059,-10.598485,-4.972439,-8.39564,-10.667239,6.4908123,0.0034893483,-5.674887,-1.3544499,-13.350427,0.7030683
-2.1028569,0.4669809,-7.322808,-3.5363834,7.125473,-6.768564,1.1507802,9.828548,-2.273029,8.489551,-4.682015,-7.9986873,-0.30074498,-4.53506,9.536432,-3.8054783,2.3205595,-2.701333,4.640223,-13.106983
-0.7876507,-1.5532148,-0.19107644,7.211515,-2.514489,-3.644542,0.7899338,-5.9368587,-3.9690561,4.746071,-2.7209272,-6.9709063,0.37371942,1.669976,-5.495352,-5.5098653,3.239483,-0.9481255,-10.113334,-3.0249481
-2.297047,-5.881558,2.5646448,-1.5463747,-1.5638369,-3.0664735,-0.2656775,-0.4559864,-8.501988,-0.47302943,-3.3101435,8.4755535,-6.8261733,9.714093,-4.78885,-2.1685863,3.1424744,-4.9688067,0.067871675,-4.61147
5.6081314,-3.3263125,0.3240433,-5.856381,-4.4232106,-5.569935,-3.161606,-0.36030227,3.6089945,-2.3069723,-6.960848,-3.453525,-6.310664,-9.462705,-8.794081,-6.2985826,-4.484283,7.1538544,1.159098,-3.7088554
0.8521761,0.3595922,-0.7290036,-1.1034449,2.7249215,8.728369,1.2040062,-3.701725,-1.6818005,-1.2660445,-2.9158657,-4.100147,2.959509,-3.0285125,10.694407,0.96910596,-5.415909,-4.377607,-5.1738753,-10.558678
-6.0192266,5.81595,0.052118536,0.19089195,-0.023533497,-2.2276347,-4.088923,-6.285264,-7.2595572,-6.952607,-10.586771,1.6740183,-7.9705095,-10.962856,-6.3053703,-6.424112,-5.6084213,-8.272582,-9.447112,-15.957736
-1.8300413,0.15361595,-2.3926342,-3.992938,1.9118116,-7.489566,1.6026925,10.650957,1.8416358,1.9936923,4.7979145,-5.698497,-4.262281,-4.9018106,-10.978004,-4.088213,-6.5235496,-5.6096425,-8.397741,7.821073
-1.0594902,-2.4102721,-3.1580858,5.389926,0.4161017,4.541564,-4.5161614,-4.532948,-6.1762486,3.5129032,10.41058,-9.784185,-3.6359115,-3.226851,-4.584622,-4.092588,6.2979326,-5.556905,-0.0026043395,-6.650532
4.4893203,2.8027015,-1.3777803,-1.17835,-0.6614648,-6.867453,-12.000901,1.4304721,-7.716762,-0.8503875,-9.230856,-11.601488,-0.59115154,-5.115297,-3.4459434,12.628125,-5.5392895,-2.7186348,-8.694033,-3.2015038
0.6552405,0.18980964,-2.1600788,6.618375,-3.677085,-5.9038954,-8.836273,-3.8441331,-12.037697,-0.16960092,-4.2783155,-3.784259,4.9247656,-6.6333747,-2.6074996,0.45605975,-8.652331,-7.90882,4.200153,8.451155
-2.1218164,-6.8325095,-7.078383,0.7053861,-13.703083,-10.734761,-7.615475,-12.557978,-10.727052,-3.422055,-2.193427,-9.8691025,-3.6318076,-0.7323907,2.4319823,0.54357076,1.1935424,0.49465117,1.0156202,-2.5766764
0.7287015,-1.6166162,3.8384783,-0.6236798,0.31605893,-0.13967353,-0.5769044,-0.6590126,-4.6527286,3.8451016,0.1760582,-11.140364,-0.97722334,-0.99896777,-1.2379239,1.3505213,-3.3315542,-7.03366,4.4808226,8.634398
0.96025,-4.525914,0.22106107,-2.3989952,10.718288,-8.130197,-5.197341,-10.67426,-1.9356986,-14.825092,-1.0688883,-0.33137447,0.15808296,2.1346612,-1.9893076,1.2460729,-4.3775816,1.92004,-20.101643,-10.763452
-8.09411,-0.2156187,1.1537693,-0.309047,1.7365234,-0.077670634,-2.7304993,-2.9873486,-5.6346173,-5.262509,-6.2609234,-1.7356606,-0.20812877,-3.2718818,-8.331899,-1.7645304,-3.1047041,-6.206707,-18.274145,-9.524117
-1.3155569,-1.3281894,2.510707,-2.076836,-4.378057,2.3122258,0.34800532,-0.46133372,-10.826857,-0.92617387,-3.7905245,-4.711722,-4.3720403,-6.9529614,1.2177998,-7.4513607,2.534802,-2.8988695,4.669403,3.380852
-3.0246077,1.1076066,-2.186921,-0.2485023,-1.3892868,0.6518282,0.38020784,-9.423503,-6.6067204,-8.547598,-5.0613327,-5.30835,-2.1609623,-4.4845223,-7.1801457,-8.820399,-9.874769,1.9854282,-22.35802,-13.559866
-0.74865705,2.5221958,-0.6579866,2.3398936,-0.9406277,-10.291767,1.7506099,2.1562028,-9.0877285,-1.2795589,-4.3349376,-7.0826397,-5.2785673,-9.856042,-8.903272,-2.7535455,-2.1202056,-3.5315757,-6.144815,-8.710862
-0.3155279,0.20201878,0.40765008,1.9170854,-1.4749423,-0.9954554,-1.1301279,4.278353,-2.8661458,0.038763747,-8.4260435,-2.6840594,4.070288,-0.69313055,1.9148539,2.2053263,-4.842194,-1.7414361,-0.5664558,-10.470895
-3.755261,-0.08500255,-0.80764234,-1.970652,-5.7932844,-4.1303816,-1.602202,-3.4258158,10.587966,0.8470946,-3.315125,-6.225747,6.7416496,11.724264,-0.3170435,-4.6824265,3.4590135,-2.8925357,-3.850623,3.669998
-1.8946252,-0.5798016,0.9532993,1.8375282,6.735935,-0.6827238,-0.50299543,-12.919629,0.07774919,-2.7420135,-3.90075,1.038298,0.16716693,-6.0079217,-6.9788995,-3.3028688,-8.679983,7.62804,9.370593,-1.926577
-2.9743261,-5.8518343,2.3753483,-0.9994234,-2.7140043,-7.246974,-0.44701016,-1.9972873,-0.15658972,6.4986033,3.7099369,-13.890931,4.3431168,-0.4927006,-2.0609546,-2.997081,2.051497,-2.9415605,-2.465954,-6.7108235
-3.2816854,-1.1624546,-8.136417,-0.2061127,-6.9354753,-8.126246,2.8113766,-10.261703,-12.903404,6.8357525,2.5324507,8.41388,-3.4852335,-7.4366775,1.4679323,-7.4761305,-5.712769,5.6909447,-4.858236,-7.3048797
-5.366977,1.7178773,1.4642965,1.8127582,-4.231993,-7.4622254,-5.0419736,0.24659677,9.485852,4.696053,-3.7372293,-11.082962,-4.448148,-8.949213,-0.25053486,2.2447681,-8.713858,-2.6492374,7.0291276,-5.3607006
6.872624,1.8252329,-5.0612445,-3.7052844,-5.784452,-4.224161,3.2492244,0.90163755,-5.140354,-4.3465476,-4.5623827,-13.2329445,-3.6928558,-10.806155,-11.85135,-7.2263813,-7.425736,-6.4092765,-5.641659,8.4140005
-2.0699227,-1.3603915,-6.2427497,-1.2324084,2.0415952,0.3139428,3.0673313,4.464167,-3.644636,1.2209255,-6.3684464,-13.736807,-1.9903255,-8.331308,-1.6039485,2.158716,-4.220317,0.14342193,-7.363067,-11.037035
1.7584842,-1.7965037,4.4648743,-0.16218959,-4.310044,-2.6465654,-2.6254966,5.1202226,-5.550531,-8.429478,-5.641738,-0.88616437,1.4747366,-0.10942631,-5.7581515,-0.6296261,-5.2925806,-6.5416393,0.41273755,-6.521978
-1.688272,0.38015175,-0.17779711,0.4822021,-1.815016,-5.0812182,6.2767773,-0.8977374,6.1302667,-11.332537,-0.056271363,-6.5717587,-3.7252536,-4.921921,4.5605264,1.1775763,-5.5998797,2.4189024,0.9470775,-9.693183
1.8221742,-4.724665,-5.3336163,-7.0746126,-13.608245,-11.800675,-7.650683,-11.774307,0.8871951,0.691352,4.7496433,3.8379042,-3.6502504,-6.869399,0.46766362,-3.1162524,-2.2428896,-1.152502,-3.5415425,-3.603416
-1.3249661,2.9927847,2.1525235,-1.981177,-4.9509435,6.363568,-9.452299,-5.500008,-2.5137389,-10.76985,-6.370612,-0.90242887,-0.11753266,-15.237416,-9.837626,-2.5265093,-9.531889,-4.2597547,1.8097367,-1.6110002
-3.9041796,-1.5858499,6.963351,-3.109875,-8.182959,2.0865984,-9.902204,-3.0426135,5.4039345,-5.1327124,-7.567422,-12.201889,-13.827614,-7.3967924,-7.5358624,1.4562099,-1.7123481,5.6064873,-10.975357,3.847684
-0.8468812,1.8602993,-0.92506415,-7.7040777,0.17332636,-6.105883,-0.00093275064,2.9444194,-3.628264,-3.4952598,-4.326312,-4.20816,7.585828,-6.918345,1.0187689,-9.443209,10.228452,-1.9168687,-4.580086,-1.2192609
-10.020816,-6.0977426,3.7705464,3.982551,0.9327278,-7.262325,4.0117106,-3.0622106,-7.562231,-7.0888567,-5.496568,-14.4088745,2.0997522,-11.0382,-15.2966175,-14.991021,-16.432259,-5.262962,-6.21514,-10.093273
-2.0066204,-0.5581219,-1.3998927,-1.9312291,0.5055238,9.157337,-2.9769592,0.43647304,6.812565,7.346764,-1.1053363,-5.5261545,-4.869462,5.216668,-4.2281876,-2.242344,-3.5566962,-5.6826825,-13.717175,-1.5114559
-2.4612882,2.3587809,0.17394067,-0.60131836,-0.6670907,-1.3786451,-1.2777698,-5.0077224,-2.8696542,1.7184488,7.4859405,-5.350486,-3.1181314,6.0174193,3.5792027,-2.1986876,-7.5607467,-1.2955853,0.34927383,-6.1901464
-0.33833548,-1.0500313,2.6785264,-1.5075957,-4.6748185,3.6642334,2.0496626,-4.1672153,-3.990534,-1.1763657,0.31344494,3.308954,3.934152,3.1162536,4.3858237,-0.5367079,-0.3821962,-1.726179,7.846761,-3.3648405
0.19102712,0.6784385,2.8949137,-0.18137617,-5.433047,-7.960301,-1.7545323,2.9470253,-1.3488251,-1.7722782,-2.6045866,-5.2074013,-4.2200856,-0.292527,2.5119882,3.9665458,-3.2032332,0.73310214,-8.612837,-2.7598739
-0.110708855,-0.68827814,8.30837,-0.15584897,-3.989455,3.377372,-1.7414895,-2.0032341,-5.4276996,-6.3021045,-1.1200324,4.924,-2.9531019,2.6785223,7.1152673,-6.0838566,2.8131242,-3.5826633,0.51729727,-8.104073
-2.7773776,-0.9962342,-3.7298021,-1.8909744,-0.6210846,-8.819104,-6.547073,-1.8768941,-16.01506,-7.174535,-6.9994483,-1.351907,-7.7869835,9.124041,-8.629546,-3.65033,0.5936147,1.8296655,4.2136254,7.949544
-0.14414702,-1.6313635,1.9787177,-1.1968788,2.8642921,-3.5158525,6.6548285,-0.28670037,-2.699108,-4.413243,1.9598534,-8.042474,-3.809378,-6.723435,-7.712769,10.16594,1.6567214,-1.7925243,-0.83363765,4.563328
3.8436177,-5.678596,-3.441767,4.6679106,-6.4507484,4.9517565,-2.655457,1.99143,-6.1363025,-6.528823,-10.719023,10.932825,-7.436191,-7.8541245,-7.4096665,-8.111584,6.9604015,-7.500591,5.4582906,2.9392211
-1.5710343,3.579384,1.1942936,-4.2644973,6.139418,-2.332222,-2.9181795,2.9300334,-6.3394985,1.8133177,-2.0091715,-3.9894416,-9.725452,-7.328518,3.3678553,-4.259016,-6.3141427,-2.1029,4.8898635,2.4916186
-1.4630294,2.289048,-1.4448692,-0.8748807,-1.8648587,-5.2375636,-0.41926864,-6.1588464,-8.8343725,-2.4461527,-1.012249,-4.19118,-2.9703746,2.934727,-5.1644936,-9.785715,4.6970344,3.9913807,-7.480444,-2.6054928
-2.3817077,-1.6027005,-0.9894136,1.5036077,0.87598336,0.16119476,-1.543077,1.1050113,-1.0204672,1.3416382,1.6859363,-5.2215576,4.8067226,-2.781902,-9.058169,-0.20604824,2.8328903,-0.5965037,-6.9269195,-8.018936
-1.4551269,0.14068413,4.3131185,-1.1710864,1.1519091,-1.973379,-6.166221,-4.222355,-7.117318,-0.4776464,-0.5313095,-7.362699,-7.3078704,-9.04331,-2.6800027,-8.690989,1.6355776,-0.8396279,1.4695647,4.8481193
1.2711143,-0.24392694,-3.8854983,-2.5191383,1.0440902,-0.08296001,8.162124,-2.804431,0.1043219,-3.7180665,-5.4890084,0.14491126,0.8595301,-7.612432,-8.686742,5.0788264,7.8183055,0.40884382,1.9326369,-7.6737056
-2.3757915,2.9645064,-3.1763914,-7.954608,-8.566356,-0.9553877,1.3251921,-13.14258,-9.438767,-2.3312604,5.403092,-0.022038264,-3.9848728,2.0877504,8.128833,7.5410995,3.8603694,0.95228577,6.905238,4.906201
1.0821657,-0.8476993,-0.8902862,0.9177062,0.7803979,-8.289042,-5.159132,-0.48654106,3.3954885,-2.423043,4.8052335,0.62563163,0.32406875,-8.328124,-0.019736143,-3.5481048,-0.3706697,-0.5857834,-0.40101102,-10.554061
2.8876858,-2.9331791,-0.30773968,1.0066532,-0.18594125,0.80610615,-4.3219266,-3.3556175,-2.560247,-0.72568923,-5.877653,4.2021976,-3.3217616,-8.082759,-6.3362517,-0.19255263,-7.8015995,-2.6232429,-6.8798647,2.8896883