0.30296662,-0.2694902,-2.1152196,0.34161305,-2.862217,-1.755753,0.35784975,4.6554303,0.33405676,-2.4481292,3.3609283,-2.802028,2.4149983,2.9425435,-5.8460665,0.61936873,-2.2873025,1.643195,-1.2028054,-3.4607918
-0.3024538,0.99530023,-0.21338366,1.4681635,-2.0291424,-4.0171185,-2.8306108,2.0484684,-0.9978213,-2.348791,-2.9867437,-4.9402013,-5.8787446,-7.0682087,2.120832,0.8623099,-0.45556858,-1.1537441,-7.571774,1.5145639
-0.8696752,0.47348964,-1.2485901,-1.4454083,5.138801,-4.908811,0.8406025,4.9046288,1.4826951,4.7877173,-3.270329,-6.0727267,-1.2075009,-2.1269338,5.1401863,-1.5766653,1.9682876,-1.1241356,4.2208576,-3.0373778
-0.7170026,0.17243148,0.55001765,1.1943605,1.6094503,-1.0500174,-1.4231033,-2.631751,-2.8035407,-0.4966253,-0.011931816,-3.6509748,1.9552599,1.6246235,-2.7186265,-1.0793719,0.554082,-0.32991132,-2.1692095,-2.435377
-0.23581119,0.22679667,1.9493743,-0.056208022,-0.44239768,-3.4125922,-0.22755846,-1.1029727,-1.066379,-0.3871313,-0.14771383,2.9656138,-4.4070415,6.5241756,-0.9527206,-1.7870018,0.71015507,-1.380656,-1.9771255,-4.1650944
1.415251,-0.56922317,1.1041933,-1.4109253,-1.3068577,-0.24912265,0.19899979,-2.5191438,-0.9014071,-0.71004885,-2.3173385,-3.7951221,-4.819584,-7.338409,-4.4972286,-4.5072675,-4.295981,3.3718407,-0.73217857,-2.5071163
-0.49114525,0.007237796,0.0054457085,-2.6351578,1.7128345,3.8123693,0.723188,-1.8920965,-0.45404893,-1.7616165,-4.655277,-4.4129267,1.9282576,0.37285838,6.36318,0.6133144,-3.7279797,-1.4808471,-5.2547226,-3.7596622
-2.4137402,2.5331326,-0.10257115,-0.2620333,0.10322664,-0.218904,-1.9999304,-3.8513267,-4.9766793,-2.9971871,-3.4475265,1.3624489,-3.3823879,-4.9306016,-4.1553693,-2.868783,-2.2423627,-1.8263669,-4.0950193,-11.548598
-1.0110574,0.10498917,-1.4359256,-1.210483,0.9783242,-1.138182,2.1122146,6.3616757,3.0251524,-0.05244273,1.1031609,-5.00213,-0.2010081,-2.5359664,-7.1266527,-0.79066753,-4.213075,-0.7852099,-9.0689335,3.1631835
0.16186503,-0.2243853,-0.93562925,3.5714076,-0.14772016,5.2804956,-3.8200765,-4.183085,-1.9806606,3.5404994,5.713129,-4.88604,-3.2191215,-2.2852063,-3.7825305,-1.8753979,3.1338322,-1.8710576,0.4445076,-3.1079338
1.5085088,0.44034794,0.7062901,-0.10205877,-0.7589107,-3.7035294,-6.0896435,-0.5456837,0.29863513,-0.3648543,-4.38033,-4.181922,-1.0132164,-2.8856382,-3.4827883,6.9091268,-2.9759407,-0.023293858,-4.223408,-1.2517018
0.5040365,0.35109937,-0.9729554,3.3034937,-2.4368498,-1.6980197,-5.5619874,0.12806298,-3.4242651,1.0202448,-2.260351,-2.9219086,3.9694812,-1.8416712,-0.5841358,1.2173923,-6.447774,-1.5132623,3.328036,3.017422
-1.9431818,-2.9311504,-4.124378,-4.2215624,-9.284348,-10.877852,-8.555543,-9.484612,-7.357205,-7.0243573,-2.0965002,-7.465265,-3.1057193,-0.54372025,-0.47697294,-0.066183366,1.9673839,1.1935588,1.0513165,-2.1381502
-1.6874572,-0.4673241,1.2574648,0.13322005,0.4656928,-2.6909564,3.1668816,-2.8762248,-1.364443,-0.36246443,0.27852017,-2.9917376,-1.0244567,0.23551814,0.35666034,-0.3106268,-1.7454944,-0.52740854,3.7546835,6.7211375
0.26628223,-1.0395207,-0.8178234,1.3229923,5.855391,-1.9157801,-3.3141878,-6.546789,-2.179109,-7.7951636,-0.9001751,0.47249773,0.19584851,2.3929963,-2.2744548,-0.029228557,-1.4735925,0.05422175,-11.636859,-4.269337
-3.427986,-1.5381184,0.20922825,-1.4203775,0.89130867,0.34120417,1.5464371,-2.0538082,-2.1011195,-4.9976735,-5.111191,-3.3001082,-5.017556,-8.048954,-3.782444,-2.24973,-3.306141,-1.8496997,-7.2565722,-4.9090695
-0.5087618,-1.494792,1.3567373,0.6807458,-1.2406979,2.6470833,-0.79245734,-0.6773102,-3.5071256,-1.0093842,-2.543943,-1.8718135,1.116708,-4.0432277,4.8362637,-1.3486058,-3.3660715,-1.3180999,0.6788492,-4.701244
-2.2587197,0.29806098,-2.6099129,-0.9561347,-0.5156577,0.9585439,1.4071313,-2.5808387,-5.15243,-6.558153,-4.524536,-6.734508,-6.013169,-6.577524,-6.4116244,-4.0485754,-4.069591,-1.967054,-10.065063,-7.613249
-0.4253199,0.840591,0.39788932,-0.25932905,-1.5258459,-4.129487,0.6575123,5.2291613,0.09802417,0.6586669,-1.0637434,-0.18132785,-1.3448532,-1.4227142,-1.4933467,-2.2764583,-1.0837619,-0.71674305,-3.589298,-2.0847075
-0.39738068,1.2824072,0.803844,-0.9252182,-2.150527,-3.375604,-1.1439033,1.9818432,-0.3268097,-0.9686208,-2.0819042,-1.4448994,4.2825603,0.59262156,0.5665722,-0.6824855,-0.7417854,-1.6961846,0.09700824,-1.6372269
-1.3025389,0.2688901,-0.10957018,-1.7265384,-2.4493642,-3.1683655,-0.24571663,0.045303214,6.8522844,-1.270045,-3.0115316,-2.5703995,5.4758263,6.062262,0.080109775,-3.123693,1.3635617,-1.0192983,-2.6513903,2.2323976
-0.11262727,0.61754584,0.84902966,-1.1556954,5.2201257,-2.718812,1.603462,-5.578124,-2.0232875,-2.1986804,-0.981015,-0.52303046,-0.354214,-4.338858,-1.9047585,-0.7379582,-6.062795,1.8779341,3.759363,-0.9543762
-2.2255406,-2.0204606,-0.39113763,0.7111558,-0.9682582,-2.4582903,0.9212355,-2.147285,1.8576751,2.7084343,0.60014933,-5.718466,4.456413,-2.3990645,1.418737,-2.2040348,1.034693,-0.3267304,-1.2877617,-4.3750052
-0.94297826,-1.5631193,-5.0741267,1.0607095,-4.6221714,-4.054444,2.0769362,-3.8831022,-4.763665,4.672999,1.2763814,3.710562,-0.7665747,-3.2866488,-0.23124829,-1.8229313,-4.120938,2.1853917,-2.648215,-2.7109096
-2.3478084,0.63265926,0.1288051,1.4914294,0.77264345,-1.8966415,-4.0967765,-2.5786386,2.1657207,4.529645,-2.6369708,-5.868151,-3.8554745,-4.673631,-2.1750457,-0.17520228,-4.921333,-0.48431247,3.7415771,-4.798726
3.3256931,0.57207453,-1.0822695,-2.6994927,-7.0223236,-3.7505617,1.3223654,-1.909395,-2.6295934,-3.4999714,-0.87651074,-7.4822187,-0.312713,-6.4461484,-6.619254,-0.7331359,-4.228323,-1.7679112,-2.6742594,4.9698715
-0.97223693,-0.91530395,-1.9770323,-0.8820898,1.4014904,-2.2616868,1.967449,2.5386667,0.48721242,2.514647,-1.7584442,-1.4445662,-3.3585317,-2.8129604,0.24741402,-1.382507,-0.60509264,-1.5721939,-3.46158,-2.6889012
1.3291124,-0.17008142,1.9709854,0.8890155,0.8567538,-0.5852388,-1.1879432,1.3485606,-1.935299,-0.8945397,-0.43840492,-1.8066151,-0.69964164,-0.69595015,-0.26941094,-0.27547505,-1.5483805,-2.1853697,-3.291591,-3.923634
-1.4188124,-0.14162074,-0.5853114,1.3895037,0.42222667,-1.6596466,2.9123232,-2.5490158,1.4513042,-3.081428,0.36624315,-5.4785476,-2.6033514,-1.6362586,1.9959106,0.8311205,-2.079152,-1.248199,1.9345132,-3.6202018
-0.33150128,-1.2850379,-5.33859,-5.1469173,-10.9939,-12.09199,-8.164983,-10.189348,-3.8259408,0.36183363,3.5971181,2.5660875,0.6062701,-3.198022,0.5620251,-2.9823418,-1.0779285,-0.9467543,-3.9225605,-5.810218
-0.81158787,1.1616366,0.48097673,1.0136967,-1.2931165,2.7801704,-6.006533,-3.3927588,-3.1862981,-4.4796567,-3.2761843,-2.6434524,0.37692094,-8.888572,-3.8117266,-0.93163973,-5.480266,-3.1621945,1.7462263,-2.3306696
-1.6030731,-0.9776839,4.865982,-3.7126894,-6.1357656,1.1416548,-4.815997,-0.3093237,3.0787377,-4.4437203,-6.3734655,-6.589811,-6.371741,-3.9092584,-3.3954127,0.89207065,-0.20389953,1.8645229,-4.264059,2.0060122
0.10004792,1.2658526,-1.6565037,-3.0232506,0.8506426,-3.5948749,0.49990085,1.8518169,-1.859469,-2.7646675,-1.2718035,0.3559716,5.999004,-2.2459834,1.6893839,-4.0238347,5.238126,-0.30205178,-2.01631,-1.4891007
-3.701766,-3.5512905,2.1201913,2.055745,0.098531134,-4.956849,4.101956,-2.6732008,-2.780345,-3.1491675,-4.1179705,-3.7228062,2.3366766,-4.534909,-2.995948,-5.4293294,-6.162105,-3.7125611,-3.954047,-2.9253614
-0.9672169,0.24097066,0.19329946,0.048103083,-0.77294296,3.935056,-3.5148687,0.8625982,3.712923,3.4331996,-1.2251638,-1.7094616,-3.9840412,2.8137271,-2.3427606,-0.33494565,-1.2857819,-1.2957113,-11.496311,1.0148047
-1.8007483,0.5507839,-0.21852572,0.62337065,1.006139,-0.7272655,-2.9766371,-1.4031585,-1.6566103,-1.1692774,5.895756,-0.658621,-1.8064635,-0.62729067,0.38335794,-0.67145836,-2.412525,-0.72786,-1.282252,-1.6090887
-0.73938847,-0.16944838,0.59614265,0.8001556,-0.9428733,2.3098652,-2.5275362,-0.21398266,-2.847422,0.123078555,-0.74584895,3.5376346,1.722227,3.358532,4.603526,-0.037088,-0.5256785,-1.5468653,6.2658176,0.07917298
0.14234969,1.4232671,1.3178086,-0.42028347,-3.0091734,-4.2882285,-1.4148706,-0.04310374,-1.3619146,0.628466,-1.1980228,-2.2132175,-0.51240414,-0.20655003,1.5404662,1.1084241,-1.6948723,-0.4594155,-4.1472445,-1.0135547
0.4848401,0.92010516,3.6795728,-1.083899,-2.3869526,2.4159198,-1.6044493,0.7568753,-2.7728202,-1.1425376,-3.081862,-0.9169851,-2.5198383,0.72692066,4.68058,-0.31819865,-0.49023008,0.2649255,-3.4230518,-6.2771792
0.43386993,0.34827182,-0.90197545,-0.97249824,-0.17310421,-3.4600663,-5.88394,-1.1827562,-4.7571774,-2.1933486,-2.9277754,-4.402462,-5.485467,5.6706405,-7.0513816,-1.420403,-0.023181602,2.1495917,1.881985,2.8647475
-0.7003431,-0.35669276,1.488418,-0.3277577,1.0045508,-3.370526,4.7618484,0.31328216,0.9897645,-1.8303133,0.12051833,-4.2165537,-3.09111,-3.9689481,-2.7092383,5.587311,-4.266289,-0.677429,-4.0637,2.9807577
0.67562866,-2.0550907,-1.8337177,2.222454,-3.915421,0.6152107,-0.6790998,-0.22112143,-3.8599555,-4.7862344,-5.672188,7.19315,-3.6888993,-4.1074047,-4.080328,-2.673292,5.3905163,-3.298988,2.6794465,0.5323656
-2.583378,-0.933227,0.7357087,-0.24270631,0.37171888,0.38896054,0.68615216,-0.5080752,-0.041866772,1.1183019,-1.1939961,-1.1631756,-1.3464817,-2.51591,1.7517085,-0.45460773,-1.9558928,-2.0542805,5.2878237,3.2571096
-0.026536932,1.5767783,0.47985926,0.60666215,-0.5043915,-2.1443143,-1.0229863,-2.0041008,-2.278248,-4.3356285,0.8932801,-4.619936,-4.517149,1.0459647,-1.0596606,-1.7413262,-1.4516994,1.5600499,-5.168502,-0.22987077
-2.3688245,-1.0861758,-0.90025866,0.29760605,1.0397602,1.0213759,1.4121379,1.0157368,-0.6243935,1.231564,0.32494834,-1.5492773,2.7186313,-1.542682,-2.988829,-0.5745425,0.21036191,-0.39385372,-2.970169,-1.4529084
-0.85032845,-0.2837459,1.8796866,-0.62093705,0.88426924,0.31466636,-2.1536057,-3.1061516,-3.748939,-4.2905493,-2.1041014,-3.535559,-4.370011,-4.7325096,-1.7680948,-2.3079767,-2.47657,-2.1428256,-1.5787582,3.4913027
0.29472026,0.73659474,-0.34864935,-1.3656678,1.1794763,-2.3676748,5.612621,0.110768236,0.5753374,1.0517117,-2.0252762,0.37342274,-1.8038996,-3.112119,-2.9140773,-0.5199825,0.90441674,-0.5302217,-2.9166212,-0.43399274
-0.38651854,0.39718786,-2.4782538,-3.7522666,-5.51947,-1.5462736,0.31954208,-4.5618877,-3.0978124,-1.6140378,2.893122,0.062448546,-0.30760196,3.0290477,4.9483776,2.4904258,1.6859944,0.97819173,2.9493563,3.14367
0.86603343,-0.9547408,0.5595865,0.84551185,0.8608998,-1.0317858,-0.24467796,-2.3326633,-1.1593778,0.1378578,4.597368,-1.5556914,0.8166057,-2.648083,0.60624623,-0.8684421,-2.3851907,0.46668905,-1.5668802,-5.118605
0.5117518,-2.513194,-0.4586689,0.38772666,0.59430325,1.8152161,0.7453178,-1.7070624,-1.914876,-0.7558309,-3.5131567,2.0713449,-4.6154923,-3.3585515,-1.861718,-1.081702,-3.6519485,-1.7308781,-3.3672018,-0.27474317